{"inputsCount": 400, "outputsCount": 10, "networkDepth": 1, "layerWidth": 10, "layers": [{"weights": [[-0.893066388873285, -0.8815426762168619, 0.49879549280289814, 0.9308158393503771, 0.25859852453987164, 0.666401498800469, 0.38949378729111994, 0.19909395554051534, 0.9849916922856019, 0.9457736381587687, -0.5665688266283602, -0.8622364869027954, 0.4723465924630217, -0.954843661395109, 0.8671867687046741, -0.7200046997689051, -0.7762131115457789, 0.6338368980346889, 0.8008605263330033, 0.0865171038073087, 0.6006737531258104, 0.8307969553816912, 0.7172880435499367, 0.2584615078687673, 0.7949009235614812, 0.1660111563156328, 0.8103471297768614, -0.054900430379375864, -0.4374818384797061, 0.14428602278661873, 0.05412742544701321, 0.2175727669042995, -0.28556745457240185, -0.3351973767787446, -0.3587592413468397, 0.23588901658912542, 0.7669035618644267, 0.8827201968523073, 0.16882931242925148, -0.9046068508231797, 0.8532506098533161, -0.4063086657493806, -0.5465837994240488, -0.49300540772999923, 0.7938325716400407, -0.25358614395372037, -0.19212423832064118, -0.45654031709351184, 0.9985885519541287, 0.4726158764633068, -0.3049553210566789, -0.4918097057856703, -0.7693529614971859, -0.28031609786815426, 0.8161501529554376, 0.1440981514413977, -0.19371384221574317, -0.0038253050471581673, -0.12012302298313182, -0.8726485592044726, 0.8061427921230322, 0.16863700837742202, -0.5173062923607132, 0.4662597434105089, -0.901454692832641, 0.008978418715317682, 0.9404724777843709, -0.7326671724392235, -0.9351499006583639, 0.1984718268012311, 0.2509171381485067, -0.5424350682403929, 0.6361539910353926, -0.7360851448352914, 0.5781207662218937, -0.03029823728605674, -0.11720545554850204, 0.8183701322675994, -0.8140409310189387, -0.950379842108225, -0.19303392223155247, -0.7232327870756547, 0.30689969817418294, -0.1007208273590976, 0.30320267332949036, 0.5197498410431531, -0.7706118325869595, 0.01409502754348324, -0.31098507110528906, 0.6136329920127863, 0.015132489024357376, -0.6141162766322934, 0.6121533893108027, 0.3481775855110132, -0.10078616894768722, -0.48026977596829434, 0.6693122765605648, -0.4310222920750528, 0.23882496995843372, 0.7487529500875809, -0.8891537687206972, 0.5719138379746154, 0.8052438018084647, 0.6140780983111336, -0.49716108558927097, -0.9337922384013402, -0.028447477874123495, 0.1657171199654468, -0.8956700105978848, -0.5771214441746075, 0.14813854421321904, -0.9909750264887365, 0.0063997885323434645, 0.24530270441881585, -0.9078414969126709, 0.02306740274936203, -0.012830302088765233, 0.7004674413817733, 0.6165214090222184, -0.2570980391830655, -0.734572108447185, -0.20533923984822589, 0.261596981797972, 0.9409232877472664, 0.8432410820315739, -0.16101202704280393, -0.8435445653949298, -0.7729602648306857, -0.7198785740257483, 0.045069379891438555, 0.33108897041554197, 0.5016773115576889, -0.9236089818581017, -0.654686758672171, -0.7140252790841279, 0.23964167307197126, -0.0648744342953882, 0.02866566682369931, -0.5101489026321722, 0.6276097924658757, 0.6403881462386094, -0.32391977342557765, 0.8613846517539909, -0.6379145060519347, -0.4234176258696678, -0.31425054663986374, -0.007813822148175609, 0.38475866028048755, -0.6602774655802748, 0.26334799448015267, 0.40556385136503526, -0.1225353505054032, -0.2946902716588471, -0.2086178761542985, 0.2529971805081319, 0.7173221009300685, -0.1020797768586259, -0.4859703078634965, -0.7128262223522315, -0.2181560651053298, 0.33032279554253097, -0.6960197938149937, 0.6060068770361973, -0.11269112926794955, 0.5058134581172957, 0.5908848327320051, -0.5547889075070644, 0.6202956539309379, 0.9528494445581619, -0.8204402890491633, -0.9331414109721872, -0.3353393559590492, 0.8099470685458303, 0.5901714246766832, -0.5668454244022976, 0.9077918450320102, -0.9358318233127303, -0.7594227337803949, 0.2606628521163201, -0.08225183075838749, 0.8815801926840934, -0.2949950183460788, -0.7921495913922385, 0.8436301080939879, -0.15455397074709132, -0.9575210535282426, 0.31302695019471893, -0.691594359681821, -0.8975648077701941, 0.762625750872167, -0.035560518842148836, -0.6418975608468274, 0.9499080554545223, 0.24179356928719198, -0.7524470511028847, -0.12093724722390164, 0.027918820366229502, 0.2623246244241997, -0.5186367990706078, 0.2901364250461118, 0.4688272725099685, -0.10456499536916075, 0.6517991801281613, 0.3830676416856351, -0.22017594567745613, 0.506651534521513, 0.8823956854736301, -0.47225825071817273, 0.6664515395414006, -0.14754551307209418, -0.23370419384238872, 0.4940567270648464, 0.9111480850710227, -0.8495121363791773, -0.38426313506858856, 0.7744533305811052, 0.5560170348826643, 0.6937465036611898, -0.9028383412152117, 0.5318808421557801, 0.8565600959781263, -0.682758514016611, 0.7705364754959036, -0.4312745338006916, 0.18402398176247958, 0.9960950440368077, 0.22451624329881037, 0.25818206098257734, -0.36197267207574857, -0.5680937252863569, 0.2419090905117527, 0.7731869036978487, -0.3233196044888804, 0.26476016701032434, 0.3799945958390425, -0.46180401848556873, 0.6013695424033978, -0.8686642315093864, 0.15887832132954238, 0.9336773816868407, 0.6372074590316186, 0.8103397945566473, 0.36455401235842455, 0.5455903082327425, -0.3029030918596469, -0.889597987385605, -0.961486081508975, 0.12714797185008453, 0.16183566197779387, -0.8289919238534329, 0.30967906961586533, -0.247219280116022, 0.5883638579000872, 0.07619922953130631, 0.6720832624901767, -0.7956731112120903, -0.11053759492772586, -0.24103146872000503, 0.026886006002273977, -0.5718073811978996, -0.16118112824549913, -0.2826883606685733, 0.6540454892186711, 0.06264919230947208, -0.6911279329682165, -0.3620939619553383, 0.7071962649530734, -0.9793187373505352, 0.4375637124035001, 0.5179957071165036, 0.6688405026072679, -0.5471334353546198, -0.20662900773499704, 0.011349600370679003, 0.6788806680094119, -0.1341262125798086, 0.25654918040834973, -0.5357237526120529, 0.4996996783927865, -0.01282845438140856, -0.7785050606189301, 0.09268509965465954, -0.11128516258906052, 0.16245863164710372, 0.34880319737628973, 0.8114665470918991, 0.23979025010176125, -0.6236269026993961, 0.24877308846620916, 0.3652202297858873, 0.6548514676139203, 0.5328799742913848, 0.6760725141124808, -0.7599904701827602, 0.865893556693871, -0.8656755057973955, -0.9937239509587543, 0.8879160549384264, 0.2643340172500739, 0.0364224684881278, -0.5337196996311733, 0.8709213617677469, 0.4892692335748847, 0.5482993676515344, 0.6712344875107641, -0.0026856112608917293, 0.27254896286039343, -0.871728855875896, -0.03554002998770778, 0.7319554360726659, 0.28460471524874076, -0.18024742709465658, -0.18688989969487646, 0.5172347466164222, -0.8127008904354924, 0.104629186588306, -0.40110421559200327, 0.07085322051557519, -0.32895175592475057, 0.37154112226781244, 0.5720276716036805, 0.16654179136964875, -0.22645363023388, -0.40129533233757964, 0.9606083235334819, 0.9645154877202311, 0.06324875029426846, 0.543544424018213, -0.8635998495251596, 0.050044863187113986, 0.6757137601678023, -0.8896692598172842, -0.04882791973021705, -0.47405512966047514, 0.06068553981456959, -0.9820504655238462, 0.20013805303335563, 0.282527517613927, 0.5060757373039779, -0.209845666451985, -0.9377103801307833, 0.5763960710985823, -0.5412025222047183, 0.26898634321503745, 0.2841207288887315, 0.42093427558849106, 0.034624895106340814, -0.4521569992084504, -0.48613575919480434, -0.6922728537274772, -0.6813912564072528, -0.9303284465488977, -0.3468364642663204, 0.09420967830989424, 0.3412097655817894, 0.15542111018746296, -0.31925467535716434, -0.688274793071117, 0.11996466332786593, -0.15989618501253022, -0.5537624183326031, 0.2676657730944789, -0.8749330154246573, -0.3624546435313274, 0.918940561584835, -0.6737855757576445, 0.2937014921355443, -0.6424008001570956, 0.6353501967662905, 0.6097301582726105, 0.7757024294133086, 0.25531946579849385, 0.3924266847650597, -0.7272638992252187, -0.4722554264660819, 0.6588217538125265, -0.2178628600920447, 0.9994451929111421, 0.9648618030612626, -0.6322596738473611, 0.9128564273656661, -0.9026935224431858, -0.0206167703811464, -0.5799203884683157, 0.11801000537034834, 0.25849082636957776, 0.8885935108616461, -0.4988337164484755, -0.8425718705704608, -0.22801070964131798, 0.09844832841351892, 0.6273168860511753, -0.18266455334643328, -0.42612528628660895, 0.9469328432332491, 0.7639904757819473, 0.8378269461742582, -0.975691414440681, 0.840624838116468, -0.7542731798013695], [-0.4244674328920921, -0.8935719312880288, 0.09807430278390172, 0.6705874952724187, -0.15804428741806364, 0.6248637489436102, 0.8643983012003988, -0.49810788541438655, 0.395104018082824, -0.9551429746431199, 0.23732419039132746, 0.5592994925862806, 0.665681229588392, 0.33991805323837854, 0.588371004720144, 0.45754322968396033, 0.15735396134121116, 0.13697795713919803, -0.8050954288876235, 0.45586608754239366, -0.6102948015774945, 0.7815446489402231, -0.20080538455107022, 0.06411526127826073, -0.36207133564015015, 0.6832496709263698, 0.2972342043696887, 0.6349488014639963, 0.3371593562037598, -0.8518198468525371, 0.43735206000501603, 0.395950815919357, -0.795190839520034, 0.8665639848723308, -0.3842490304626225, 0.07741689512702976, -0.8154847951650908, 0.40359719188190457, 0.18258672602498138, 0.8011498259713756, -0.4136757410698346, 0.025407459476894934, 0.8285161775724135, 0.4372617795219087, -0.7603335850565378, 0.44136357479254484, -0.34729352680550085, 0.08935744369415777, -0.5967241763633326, 0.5441488615644547, 0.7778734679666783, -0.7036688725228526, 0.9807085531517246, 0.89844634836975, -0.6792131105051333, -0.8142705461827886, -0.2209520268034828, 0.6543750989570292, 0.385850024000705, 0.7288905978459965, -0.39375607925360545, 0.6061732863714167, 0.7421586889726699, 0.4917433582934734, -0.9863871364478753, 0.3567680370120043, -0.8805935109851586, 0.1948859882546221, -0.6467720967185837, -0.017770111017596735, 0.46066360726665456, 0.44346718642104155, -0.7677139480056925, -0.8405896231278929, 0.3109412088691468, -0.35551995424657057, -0.4126922335741716, -0.5378659162610928, -0.1363498700564978, -0.7607467155738576, 0.6654655982386704, -0.7694952147475138, -0.5416486562270699, -0.6984359658427532, 0.36080143922727115, -0.9513384625058532, -0.43809039063164357, -0.44793734350147907, -0.5035314337677272, 0.1712187312740423, 0.933396165841839, 0.5241104060379627, 0.11533055233826262, 0.5351521865460329, 0.3950984733466496, 0.4189333579396022, 0.26602008144800426, 0.041843992489117854, -0.07411559217402974, 0.8424453144762978, 0.9480234786055473, -0.15256007170368857, -0.1538754697030904, 0.5451466884491232, 0.5773426126430123, -0.6990939732497599, 0.08042724585083993, -0.7740095182260354, -0.663834685970567, -0.42326767984703784, 0.5251643410848879, 0.2023739316324229, -0.30107289659106073, -0.7247985290158643, -0.6287141399636138, -0.44136298936104246, 0.6569318224686405, 0.7030751008136797, -0.6794921923490718, 0.09606903117652665, -0.5701094831242319, 0.8551591622848334, 0.4377464536812852, 0.1556795468376473, 0.3632778190781458, 0.6635271395052744, 0.055038214249239825, 0.9512463737751653, 0.10520503196084863, -0.9360522753315559, -0.002926518393905342, -0.28608427534978986, -0.8938583725230926, -0.5354680127672311, 0.5582222170047098, 0.8070788043817378, 0.7288753032755149, 0.9565571353117936, -0.2837945370150632, -0.15358314250351457, -0.05007461256785706, -0.6831096188712389, 0.16702161770901514, 0.5745041871084786, -0.8994670149891295, 0.5877750595776625, 0.03041282492417996, 0.4050749211485074, -0.8123888210172376, -0.488077922136154, -0.06019364257886051, 0.2820403322110574, 0.9269650349751417, -0.04862442572518977, -0.14696709303630606, 0.5275707249063297, 0.21412487977837813, -0.9665947468743468, -0.45252900235538585, -0.5999381052985446, 0.17951379799928446, -0.7355603372659181, 0.1992311576084438, -0.005857776978743123, -0.8998859710886586, -0.7209963262244621, -0.5418054321246604, 0.22170674073798025, 0.4269528406115144, -0.9249742868418156, 0.9077020633132071, 0.7250654360838096, -0.959544417858069, 0.9188561622488878, 0.7701181444599048, -0.25574734588851333, -0.7441768864969951, 0.3305305191651515, -0.04345818369328103, -0.8277085671528523, 0.21437099746095156, 0.8686135893652898, 0.5764436423167885, -0.6524360680958075, -0.4236870276906919, -0.26530219760491813, 0.6010325829259118, 0.2865361608109507, -0.168678194939613, 0.24628491955958243, 0.9525224188726162, -0.5905909048293474, -0.14675260354200237, 0.9337109646588364, -0.16615664509011907, 0.564846637647554, -0.7921236286227022, 0.10559426916313552, -0.9732496283620746, -0.8454982373547275, -0.6512355025632, 0.24011204666853647, -0.0640748759496752, -0.11569050788768731, 0.3128607542271886, 0.6092835869999078, -0.6572977348140592, -0.006213769475867714, 0.5968464790433716, 0.9822887092334576, 0.8419554314697746, 0.9016043527387814, -0.0743012963112124, 0.30015271100838525, -0.0682087434711518, 0.9284602528095851, -0.7243237523765915, -0.22415892028829298, 0.1574709865179218, 0.584783032041488, 0.30151223758644385, -0.20770759577483888, 0.5882195980760692, -0.616765967125233, -0.43651880511531105, -0.5831286760745449, -0.25758335833485835, -0.08004881183847257, 0.20295479446982312, 0.7304155110888826, 0.7789988990171903, 0.7510101464281156, 0.08227617331555526, 0.006100944263627728, 0.36525355834063866, -0.1071687946824873, -0.9197886674565257, 0.9103248196141651, 0.29238916383773095, -0.32065770800755056, 0.20922950543287833, 0.7086507992317774, 0.02944144217305311, -0.399677165831402, 0.4883059363858202, -0.4452161520470126, -0.8816697817924939, -0.42082209541547355, -0.8861653894691264, -0.33821492635921646, 0.8804528628476911, -0.0965939411400949, -0.8469266353479319, -0.3335707696791712, 0.6731144504704498, 0.5562657851274055, 0.30258642518458334, 0.9768669769390546, -0.014716842477732195, 0.4179501811736308, -0.4683510515910163, -0.9643639498626637, 0.913013657919129, -0.9268269873905546, -0.36976656018739273, 0.172246903142786, 0.47707686156125484, 0.3849426547581696, -0.9358305608738033, -0.8482761632261997, 0.995161658588188, -0.9064931902476685, -0.4060329883887328, 0.08837980276851698, 0.8367639598183239, 0.47987456718485944, -0.09133464778631928, 0.5071473930808992, -0.48527494194682985, -0.5672695931016121, 0.24526694637644786, -0.31163258486661016, 0.6331974506730296, 0.8609627745603716, 0.8060421452443278, 0.5515962092211002, -0.17025120376133973, 0.33557443265032805, -0.8230540442724017, -0.7964634617278066, 0.18051359663692934, -0.3310678532910283, 0.8440776041668421, 0.9831117504792151, 0.9612519462162175, -0.9065849954646268, 0.5526717310849707, 0.5196907673918658, -0.824069918883195, -0.6137134581412342, 0.10665892297247348, 0.6398575093681431, 0.9128529336799664, -0.8969243355234748, 0.16537661109553592, 0.2677672448711679, -0.7230795564614159, 0.94658562401899, -0.5979852855609449, -0.23171503486117473, -0.8276274435326874, 0.6265873154990695, -0.7544578267372273, -0.7195356511556457, -0.8027240805936435, -0.40202142003952934, -0.14242306996130916, -0.031350727267856815, 0.8281365310481181, -0.29289662208181677, -0.9552188562026831, 0.2624962580684931, -0.6067444472670671, 0.5286557786690178, -0.79758339717989, -0.5263462004109394, 0.8544582826462312, -0.1602186567098811, -0.3163242403199602, 0.32516720572400937, -0.11596740269478256, 0.656811770342026, -0.053293353875418115, -0.6925791058095603, -0.015536933602366965, -0.13177977205496405, 0.23895987102137695, 0.7277369883322098, -0.1134438570150138, 0.5289072198711358, 0.768252907649539, 0.019322722483979815, -0.45376937980633647, 0.9882245613810532, -0.2347260684207404, -0.6929875294673924, 0.8339515886277284, 0.128778228698746, 0.14433264253872102, 0.9353527602703866, 0.9567014310358495, 0.7782741504916739, 0.4529965752648175, 0.11920597311354753, 0.7603933946115728, 0.06437775732817164, 0.010249941703424748, -0.02565888641468006, 0.7654065215703942, 0.31146907177892347, 0.14664417739707902, 0.862290381905952, 0.003148593283931911, -0.7318660362990046, 0.6329964576643836, 0.2628740087092394, -0.3731231111972424, -0.8889883583091491, -0.5311147670281526, 0.9080520456682062, 0.8812170106013599, -0.3844875620170234, 0.46217225938548423, -0.13258056032231536, 0.7017845713579987, 0.1551587155514873, -0.740624861838368, 0.2341908356953495, -0.31127605205072983, -0.5726013900277482, 0.7769991659738726, 0.10747637105709984, -0.5625503673669523, -0.8660629124970458, -0.37878610093939913, -0.8025062545603954, 0.024423666545979827, -0.22788381058754625, -0.7576850690721617, -0.5631285977595737, -0.9692308181619731, -0.281220906497329, -0.5930074480883241, -0.4815557046253751, -0.18524425883905637, 0.5204767724636057, 0.7447889528019076, -0.9375052125392676, -0.7143640765971861, 0.10835073315104049], [0.9355270182408599, -0.7125471919572857, 0.08470892193566604, -0.4606265338149791, 0.9405956324331928, 0.9136798358129563, 0.26554356958480096, 0.4234679873647804, -0.6463279005176612, -0.28339233270563624, -0.7800267852599458, 0.2575077077383543, 0.9656007141697023, 0.39384828483916, -0.8575100290789459, -0.8975099255852226, 0.08809002082442752, 0.1677666033095453, 0.9147149134118411, -0.5489478793542653, -0.1897046232407038, -0.599075354837348, 0.7707642737081764, -0.6264695663596571, 0.6641205570753297, 0.381032972173015, -0.5349539929216907, -0.20210009053842137, -0.3747942305396632, -0.15331625707038277, 0.3873790422883938, 0.5667132863218258, -0.34708005307877654, 0.7230659610877506, -0.9149048785628102, 0.24766086728500558, -0.03825329381902742, -0.08308373710273442, 0.06674292799825632, 0.4446189582293809, -0.4356772117040051, -0.651509802593196, 0.803573368959118, -0.7526323862057938, 0.7653040362800823, -0.7642023155577287, -0.7765535088436919, 0.7394525844471966, -0.9903538882472576, -0.9275793762658999, -0.6888716354103421, 0.8477147185361953, 0.4487538726849496, -0.44167529587117005, -0.5958222111547729, 0.6130133695646351, 0.6481071104296403, 0.6770109713310559, 0.017766493831391283, -0.06853405419972547, -0.9287666005293695, -0.18507042375953686, -0.9089903225863689, 0.8635250087501865, 0.6346617725594308, -0.5009049736391575, 0.07458253011088467, -0.8120453213236489, -0.4861260623394912, 0.9095511644077698, -0.7380781133235026, -0.28862241193843574, -0.8119107366918634, -0.5149666108916644, 0.197821498952089, -0.907391188335473, 0.6124279280124876, -0.697556652807436, 0.2309852604137197, 0.36009876310752253, -0.1046088630748443, 0.9065891423108154, -0.3737758912701956, 0.10230252018636743, -0.4263338807448245, -0.8686831520288927, 0.4914870614896454, 0.825377965146296, -0.8988991008658158, -0.9875912635434065, 0.5807550063029356, 0.2431950066410653, -0.7864473261140321, 0.14878011860531015, 0.8835063797588105, 0.1335868578648114, -0.30214435531266615, -0.27823947428848905, -0.5084409131711516, 0.1911642074068869, -0.13645328539121704, 0.9128654670429723, 0.8858300993997945, 0.6920986462275205, -0.30222236245551426, 0.7082575621697256, 0.9433143510008366, 0.8375488158636373, 0.13721615867266124, 0.22528872826287727, -0.6822319790709479, 0.8413879436393388, -0.5470982173050305, 0.06631698286560495, -0.27761327654582013, -0.9190796535573478, 0.9897211299761752, -0.4413433962505908, -0.4564015708578453, 0.6705324050854506, -0.1744385025848909, 0.8051290609881592, 0.43071732110193195, -0.27938615375994513, 0.3274751616835099, 0.1028092649561263, -0.5772507721984403, 0.7771958314183911, 0.9711197906449729, -0.9478065725225442, 0.006901003861941257, 0.45325656565309136, -0.6760209900682357, 0.3484008961525493, -0.7009443462037264, 0.798026238906516, 0.5928867726019169, -0.7246611010910764, -0.9945841255994112, 0.013586498864991636, -0.908624868602933, -0.018396985356815776, 0.6079209130470784, 0.2841410939068687, 0.9773206265744643, -0.2568764090349154, 0.9876833943088965, -0.5090826534469592, -0.6998045822665204, 0.5852736176847178, 0.8790676563913657, -0.6018024083577656, 0.16282642211869747, 0.05096812678401674, -0.2192696253991322, -0.9373096408660375, 0.1700394036062456, 0.38502924539923633, 0.17745665296202162, -0.6590917832886354, -0.7275174064931831, 0.45626874295158704, 0.010995519480508475, 0.3948410024522351, -0.2563850549088462, -0.8748146560564145, 0.6998579939415368, -0.739006585645309, 0.3359062963446582, -0.21739581159076482, 0.03711836248147793, -0.8597731170364138, 0.33523381516894757, -0.7557497628033927, -0.3895179227618264, -0.7655036981045522, -0.4662671926880768, -0.6307934015838907, 0.6223996244159566, 0.7323531541013595, 0.45958092304234754, 0.7238326501847094, -0.4465777500580903, 0.4223960142768328, -0.3734327977467571, 0.7014336637519396, 0.7567335053410973, -0.5496159749897134, 0.8769152399364464, -0.4785360002987471, 0.3987950705881451, 0.3238773696782675, 0.38709024967587147, -0.3819709833960381, -0.265543384934499, -0.2989213655245675, 0.6022676465563905, 0.5547007517464044, 0.8364024758806965, 0.3183417243150497, -0.019684256372691333, 0.4935752927091803, -0.6535029923937645, -0.45759834180488124, 0.35414927876002666, 0.49505469732704244, 0.6987944188383945, 0.06972692305861972, 0.5248268675297607, 0.3789434289518778, -0.16994461751042422, -0.7026201820003946, -0.5404940168161407, 0.6839432034835855, 0.25736984927339623, -0.7417921026916836, -0.7078746556011111, 0.7893328615616031, -0.17114567608685993, 0.10801081151370018, 0.5996314880137916, 0.47543993180935407, -0.2102698697554206, -0.8512945184465257, 0.573331304824908, 0.011167482404369267, 0.24411191869253246, 0.9520885576348042, 0.34069359163557955, -0.29369568662398926, 0.06801718161577663, 0.8560820912443592, -0.7227896993250345, 0.7564364722650387, 0.4247705831132975, -0.19941277420463854, 0.8065689739064292, 0.05445294861119154, 0.5747948088556245, 0.9478609237373525, 0.22040730056423596, -0.2603075199123408, -0.6481833617638459, -0.6396837480162509, 0.9154286633528297, -0.30093978907872243, 0.17018265389349407, -0.5263453355671635, 0.3023057353823042, 0.1864166503802196, 0.7042220726651252, 0.8903640202002854, -0.7224984962357965, 0.9744895268979266, -0.9788895448761432, 0.2183467281815683, 0.7637908944323644, 0.3196137239829939, -0.21204250478362208, 0.2490930764207202, 0.2429320694469479, -0.5614201682194659, 0.32164209980421954, 0.4104035273900053, -0.388308515514032, -0.2884181095375935, 0.6299388066157878, 0.46360107446232823, 0.3025075893755549, 0.4247994763586165, 0.4306414941778749, -0.12291238005231175, 0.36152922812723376, -0.9698294625793089, 0.05664820513836166, 0.42210680156878877, -0.7291931200221209, 0.09913213589424341, -0.7131808781052462, -0.8733509340348597, 0.6444389461610642, 0.3773736466923516, -0.5237854785797542, 0.6315736669832388, 0.5266760913430402, -0.8937287314346785, -0.2486390257875346, -0.4318106014880141, -0.9383802316540453, -0.15610503080233928, -0.5999602644575897, 0.1969746812437596, -0.9182512409519228, -0.636977203743142, 0.9899881783468032, -0.8070702961143428, -0.18492368691585415, 0.5418618171519625, 0.5986638271804436, -0.4646471219152646, 0.4662383750569534, 0.8769343702301493, 0.4319716230976942, 0.7879483740182096, 0.20324763037874982, -0.8496212272073087, -0.9826239402033643, -0.18581132268136735, 0.4365519258439339, -0.7521000658716674, -0.12198220460749032, 0.6399695410908568, 0.6671222372484302, -0.07591639425698493, -0.49945558349916186, 0.3116355771914059, -0.01639767565027106, 0.1415512805464192, 0.7754209667824217, -0.36915272573359914, 0.4567790820494315, 0.08095264488309462, -0.7387938815673964, -0.5947425947959826, -0.9459501122558482, 0.9774146869372833, -0.3040043006124633, 0.6433423542318415, -0.8099145583270833, 0.9645366111680003, 0.12388470990173173, 0.9080655239844695, 0.7772276023314857, -0.38816801212760144, 0.39303943738910063, -0.5302508933730692, 0.7485313736142287, -0.39848794509717256, 0.500231980696999, -0.5264897567664009, 0.5887249293667511, 0.9335204341206971, -0.8808904286781147, -0.41733695102862844, 0.5370820064115616, 0.4997353284004613, -0.8139269121878447, 0.8657523753241476, 0.11130362015620898, -0.8632641895885538, 0.0742534050578163, -0.923515226059912, 0.9155604366387624, -0.845444446644211, 0.5890607968772426, 0.3402219319442301, 0.8255618642921998, -0.7795732188196247, 0.9114087979656051, 0.7322665298197111, -0.27696877123728614, 0.8772272819920992, 0.8547334762334333, 0.7882686263566707, 0.518777382612815, -0.0436835926537511, -0.027157647242130656, 0.7135173251549947, -0.8564835051291062, -0.731292469409059, 0.10048562778627113, 0.9453021357768125, -0.10697034932206417, 0.5740743003865916, 0.09577613980603039, -0.9796330276931595, -0.11287707086253818, 0.08918942326280521, 0.7642299934033536, -0.3351567881095092, 0.6419515415603074, -0.7496246765312802, -0.8729024109885639, -0.4569739779494113, -0.8893853012582558, -0.4867215215647551, 0.40925624126968363, -0.8308840422114789, -0.8522568774890458, -0.5008087784265176, -0.3667765597987558, 0.9665144743387757, 0.8317486180506044, 0.4227626931736077, -0.9248629015352801, 0.3387540968930014, 0.48476804948053753, -0.5628923882095127, -0.999052586006538, 0.4696156535512781], [-0.3908190614578797, 0.4956987030384157, 0.2800339662996354, -0.8361206533220196, -0.33740829588787546, -0.42861560096255946, 0.25635596071271594, -0.4732399438737216, -0.73536318245188, -0.4865886941257551, -0.3105581756028988, -0.5992529223972456, -0.5811623786440572, -0.3209134137502261, -0.45106909238887893, 0.006335101413229127, 0.4357083071060861, 0.198485216572716, 0.42706973803178183, 0.34724484677225975, 0.7822704118561561, 0.9215824971379833, -0.5906489163142363, -0.6718306509428249, 0.4824076492976994, -0.9586546366294795, -0.4185154389324779, 0.9394899958138194, 0.8216694359630994, -0.4013316260960318, -0.6373145152793975, 0.6060415430257304, -0.015236229283070335, 0.34768016259585477, 0.4134902450336697, -0.8402940638858907, -0.2239345226379681, -0.8665943432955783, 0.8001948611233605, 0.12053559422598759, 0.06486563320217908, 0.8836939861109987, 0.952126110125495, -0.1215234125237461, 0.6386260762155602, -0.6616204180286529, -0.8758221101857773, 0.6435454869242403, -0.12792181428804072, -0.5006551300952924, -0.6287107323283425, 0.12410404782788476, 0.9526728650328107, -0.3062594128769318, -0.7771383954160227, 0.7214765393858975, 0.8529175634395725, 0.5144945891385355, 0.9424156215321906, -0.919855803046753, -0.6088946115842722, -0.5287818920009626, 0.9531827675937135, -0.11471438415459922, 0.31266096632189755, 0.24566730570425177, -0.5699270626507147, 0.007331700766505689, 0.6725323010354269, -0.9119839550596192, -0.2127034686331759, -0.9927854520523927, -0.6513808628801874, 0.9246201734165735, 0.2804397487752326, 0.8980120701091356, -0.18531544952953793, 0.18409949127004044, 0.15505322709468494, 0.10856630321351779, 0.44541145267370963, 0.6826550166395593, 0.6872212938587208, 0.6507946672785339, -0.6597594252372265, 0.7597763177217238, 0.29560535916826214, 0.4144278296139887, 0.6967193651822434, -0.6730176210356169, 0.329533711056323, 0.28867956301140185, -0.8261290662493161, -0.6697087787296037, -0.32411197437167893, -0.23672822903900714, 0.3883984756579384, -0.08762473224349576, -0.13072133808450603, -0.7882027056867216, -0.731881694065873, 0.8956610394888562, -0.19356499395939486, 0.5440709595867277, 0.23109026237070518, -0.36446270825272276, 0.00310915259300959, 0.12294679756713078, 0.20589247673286448, 0.19481600808116473, -0.18595815775238655, 0.07878472401512404, -0.4421234059500758, 0.944831372966225, 0.07302710982794158, 0.47470558468527324, -0.30785383939378064, -0.9413293318962155, -0.38693835203460214, 0.641691927762537, -0.02952521487331561, 0.9695540289054196, -0.6125257953028134, -0.30012173659259167, 0.5028994471790957, -0.09244577579031721, 0.3318395718749445, -0.1462675687104258, 0.6971566002536813, 0.1542148249435238, -0.39590056686938, 0.43402377578158813, 0.8115455597924106, -0.21594410632629923, 0.9211866267756874, 0.2855169338002639, -0.0647385107657199, 0.45399813586005044, 0.6187896525267376, -0.38667597578867885, 0.9681030308049241, -0.24565550866134234, -0.9810713080283295, -0.6577615042791412, -0.42499597562192104, 0.2374688114261574, 0.6764408457652951, -0.1741341889108614, 0.6717692442852483, 0.4040134261700541, -0.2912488812012266, -0.5700614992394286, -0.7402632410665297, -0.480780349918545, 0.6706853581112266, -0.7080206132879394, -0.0018082992474901527, 0.3363129625261563, -0.6070790184623407, -0.30034369536216077, 0.8511805461829354, 0.8262553347029635, 0.8027134633987141, 0.7351302352550284, 0.5208398112188086, 0.9878279074740552, -0.8616648524681356, 0.308543414945154, -0.7361245836968475, 0.3491031500921302, -0.8357996532675926, 0.29363571623705376, 0.9885836393708967, -0.21152690140780095, -0.4672390368601613, 0.1992264001136117, 0.23107568967909065, 0.1259766619928011, 0.7347425464279511, -0.9877140359219143, -0.0970791270496505, -0.9242531805733707, -0.5257102099344664, -0.5898836031836225, 0.053251048154158376, 0.29913446991065884, -0.7607168464548046, 0.022338779006149334, -0.816470085131088, 0.6579834021280511, -0.2717776739386413, 0.7013344446206575, 0.5586544101297113, 0.14396086280769138, 0.2116952535682466, -0.43674765382417546, 0.5684998172824696, 0.6891157731926345, -0.10634446366036943, 0.30852980522089957, 0.7523693970808962, 0.13549611396030947, 0.5030189405295529, 0.6694375997796105, 0.9912335526413882, 0.24590317061762135, 0.947443087429165, -0.20870232800187938, -0.8560096104810326, -0.17000700546878678, -0.46607917133528476, -0.47273892991406496, -0.9656970966078509, -0.16137010801648177, -0.9811875094441818, 0.0005434694452510769, 0.16204297586519778, -0.2092339576434148, -0.6951838324077282, 0.6940532178403387, -0.21421663675048785, 0.687011729363675, 0.042359056768026315, -0.6959436460069557, 0.7358880698051671, -0.4396463510359623, -0.5888074835969666, 0.5146256531334479, 0.3715618548547235, 0.19042084910955537, -0.4201903216497376, -0.36263825337163236, 0.732798336875317, 0.44565034201756437, -0.20454357222675834, 0.5779495983320853, 0.5837086223036962, -0.7075587791447633, 0.07412227159119555, 0.41971571319958456, 0.6826528868745552, -0.9924771514501196, 0.650086847167364, 0.8756548019542649, 0.08367689535089617, -0.3122604757162246, 0.10685610088248731, -0.20572233336680412, -0.6710982094779563, -0.7092212756011054, 0.4507722278813955, 0.5159363051423389, 0.5289977719819314, 0.3466365238028519, 0.9414500388890226, -0.9708574713769311, -0.6725034228647595, -0.4620551150372678, 0.4488484515605291, -0.2812565316484499, 0.6710859620523004, 0.19490557454058544, 0.940332764596918, -0.37416214783387325, 0.7826573225310047, 0.014361387990177388, 0.6490787220168419, -0.3159797678678913, -0.9905567977504797, -0.29793283434379125, -0.8442155029426206, 0.027883304627261296, -0.4929549750153335, -0.5557675874353982, -0.7738353970062588, 0.24404211918232033, -0.3235157946249525, -0.8967900018092292, -0.2973933042603494, 0.2823305146710253, 0.22213951932672593, 0.02983966455083298, 0.10549459805242511, 0.798771105124713, -0.3640625915774276, 0.41172041094376977, -0.03728263497939066, 0.2719239692001356, 0.2879937216056303, -0.7367206799184332, 0.9814794442650361, 0.24338242733351945, 0.7880489185341628, -0.7867551426641028, 0.5486500011926947, 0.1908805054678835, 0.7969209197680223, 0.7007533067226672, 0.8860454792298296, -0.17191719300465524, -0.2765803970222702, 0.7963264279616846, 0.47624839729841884, -0.9878972500106575, -0.9223344126904776, -0.9088300094209585, -0.288841709470536, 0.35470044226494446, 0.22745084765610546, 0.5537526847252874, 0.9031927221983145, 0.3656176715833517, 0.5284794852475185, -0.8614016009053547, 0.10431492372031914, -0.08832201412754004, 0.708805457548561, 0.5956288117125152, -0.4904933599341583, -0.25316923340187847, -0.13830454394054104, 0.7021718758683406, 0.869555558139367, 0.7039913946171512, -0.5025859212638122, -0.4999553065893081, -0.6177959013214387, -0.9925352493483937, 0.81908005222318, 0.7097398625432014, 0.15388146277251558, 0.9401493504952438, -0.15711779504525936, -0.4542393902980295, -0.698268868721863, 0.8065418838517555, -0.7413554372211946, -0.6348545811205484, 0.6313164344812081, -0.27306343944705813, 0.08570596158717936, -0.639779233235489, 0.07249209556933622, -0.5317958172545905, -0.2198917034368364, -0.5484398154185839, -0.22360199659374524, 0.6745464283158624, 0.14553051931452243, 0.40847375805825425, 0.8529275738645821, -0.22650654816808458, -0.9833860713491509, 0.37196014799554566, -0.5741405751891921, 0.4155881390617491, -0.32421251590448663, 0.7973634685216633, -0.5949463238303447, 0.1967934468322856, 0.024765377853050108, -0.9956274866924577, -0.662255577256218, 0.8353444001036456, -0.31685659876750805, 0.435856036270281, -0.39294392142027346, 0.987982583369666, 0.4211204763120724, -0.9942760615880624, -0.6771569102965127, -0.3044876675229786, 0.33628007936193427, -0.060008119543859095, -0.1376208436897044, -0.8408390583305552, 0.9415128780217745, 0.18028397328145784, -0.05978681072595582, -0.7383364666528083, -0.4733216368008084, 0.871520261727776, 0.8530598740757085, 0.6567283899561549, -0.0510279392981563, 0.3858663839860297, -0.18009619689424228, 0.6043724504111787, -0.7574899819159693, 0.5979766078699604, -0.08537018652972983, -0.6134063867999744, 0.41074094084389046, -0.3953208699062474, 0.17378690773850392, 0.2354556934634091, 0.78791905757462, 0.6781988371127381, -0.10352878649881947, 0.21128652773697754], [-0.9108127435282318, -0.3429653604892964, 0.7643506656746177, -0.859552378394407, 0.5659235030545953, 0.6944188600949277, -0.7089378056190505, 0.17924760741982926, 0.5963016661069227, 0.9425998511874241, -0.7400604294947883, -0.3975486267437842, 0.7193182497914481, -0.9336123972940771, 0.4259506184694932, -0.331690139334732, -0.2997943832746661, 0.8810256070372056, -0.6581417661838136, 0.931037161187352, -0.8764450374163695, 0.2645190445805783, -0.904795831188101, 0.5166462693159379, -0.573330148956859, -0.03613117406775679, -0.9414954948104328, 0.3803967245566582, -0.26194019892356657, -0.23318148710233033, 0.05533869762207222, -0.7395723380940091, -0.9963855883594759, 0.027513104791516918, 0.12880577806596194, 0.8516283281173451, -0.049027802363862616, 0.24005881446652677, -0.06615821063399863, 0.29099141320246824, -0.8764767910394504, 0.7768916175932263, -0.15120159984913606, 0.8283592612544437, -0.1671949376362205, -0.23248029192111286, -0.7215837039780932, 0.15495643298027373, -0.6494108127107461, -0.1867306246411975, 0.04354800692342464, -0.434140107006604, -0.833369210240217, -0.5462034797130431, -0.5972677024998283, 0.8038856613988692, -0.9856509436153953, 0.7986673475419628, -0.3898170693850487, 0.779594255891696, -0.2916432266893496, -0.12745970733090917, 0.8734563948114324, 0.20688274802904427, -0.7910705441648116, 0.6609606065600093, -0.14865887776478148, 0.6135886190663196, 0.9003333587410192, -0.6793431116191819, -0.26212462600708286, 0.2256780399792655, 0.3742852276420221, -0.5901139942321765, 0.6317771231594527, -0.15807445974728718, -0.5886475155425777, -0.05681720528124279, 0.14161734556366867, 0.6021130435494253, -0.7603934250529825, -0.43668448332515997, 0.745210118878026, 0.10196806261264046, -0.8774210043980184, 0.6075404765048327, 0.14234823874978697, -0.5199060767280808, 0.444312133444164, -0.11799506933545478, -0.4559344552871667, 0.39060731328441833, -0.3288843870309037, 0.06804920872917886, -0.23085176582717315, -0.3068966963314499, -0.813059260167301, 0.7395871691308091, 0.44617791790039174, 0.15294870380309278, 0.8772265165173136, -0.5526591507846801, -0.6781937354649601, 0.8216884640833315, -0.046773352153429926, 0.7153337976498397, 0.399608958530554, -0.22771627926253601, 0.6898147448810228, 0.3159918084658131, 0.7208676780303944, 0.15956956029325586, 0.1110348313520586, -0.03804339108749555, -0.06440385978823193, -0.6098047638746764, 0.6562878417498217, -0.6566981024657059, -0.5562932365151096, -0.6044324802524739, -0.0074398446461745316, 0.9168978774921013, -0.9388295380118783, -0.8135666600945592, 0.668541927923882, -0.8784975136987856, -0.2567948580568533, -0.7487533966406426, -0.9055542771099534, 0.49277304362260677, 0.7354583366265963, 0.05518137940365353, -0.8933284691794308, -0.8689766409764408, -0.8486675476177732, 0.2213163964820457, -0.28597522220603877, 0.22670403444531795, -0.4998748154081838, -0.04480055489763313, -0.998432854755418, 0.9371361268447365, -0.5270651541036031, 0.09009752481181366, -0.30986596984397674, -0.5599508053881386, 0.949296322612877, -0.743422261301875, -0.4336141098906783, -0.658936755087991, 0.2853138672390054, 0.8006240450113815, -0.915626001140377, 0.6229847594688787, 0.6554231356759697, 0.8741567098237373, 0.7729463690422451, -0.5539007162326706, 0.96999958321438, -0.6832899678398368, 0.8625735499624747, 0.0427375078268557, -0.025724765510749315, -0.5585394782678632, -0.4434067478981678, 0.7901249578573692, -0.9512651171178326, -0.8068661627630205, 0.5113561890396998, -0.16187199682855602, 0.23136368113523487, 0.7818497864758218, 0.9362178178898515, -0.22620211855477623, -0.45651542488639074, 0.456190219198493, 0.5607237599614108, 0.9848403479230943, 0.32845999403646586, 0.24028348786912845, -0.09639899925227335, 0.2475263790556994, 0.6965354748876147, -0.7030046766386415, 0.03618593287564131, -0.4596863955404489, 0.8351028065429589, -0.15256007856504938, -0.4906422848010916, 0.7481420595609871, 0.7482663636303826, 0.5290365559499364, 0.7821188641611361, 0.9733681202002893, 0.7822038714574593, 0.011235180991777893, -0.3061594634161724, 0.8590426008095833, 0.3363010064780234, 0.5828221055242768, -0.2932427344522557, -0.6219793198818406, -0.8584183489897825, -0.19380106342432102, -0.7640110249638243, -0.7342277583438215, -0.5154229401668737, 0.8097889455326375, 0.3635526854499649, 0.9233608750169668, 0.1167318455653259, 0.7193925510113897, 0.16779562350265786, -0.9272458669681718, 0.3984112415274301, -0.2696317012051985, -0.06509308153132976, -0.267491269843086, 0.3533174923047353, 0.02462949063678188, -0.69211838775008, 0.24619772047401178, 0.2865577826614276, -0.35848917416394555, 0.3663545309653691, -0.2678496102569816, -0.29859507334170243, -0.047436701790037894, -0.251779009955871, -0.41215238471583304, -0.3980611580661497, -0.940669662853572, -0.2831624639306034, 0.8435464313849221, -0.8317858222135983, 0.3805256004306563, -0.2761161357540505, -0.4548039670698891, -0.10529835138341959, -0.12327775935413987, 0.28151427999615763, -0.987665043884681, 0.7211222685440586, 0.8916594413516414, -0.1945415218197759, -0.9365803100626025, 0.6204954320418863, 0.4668418446644531, 0.60665610818742, -0.2597529621299204, -0.24335412608608165, -0.508854477102975, -0.39117185099448193, -0.015677172173926834, 0.05354031990243224, -0.4467354480997645, -0.3643200161983262, 0.49858465490297355, 0.5084401475661491, 0.6321209917955197, 0.28058860713287803, -0.44388848467408626, 0.8951286857721803, -0.05583819598348705, 0.8876582252114777, -0.013198932363078564, -0.9861931029757054, 0.34122248653385445, 0.06528870889141114, 0.6086067064995053, -0.5390178835706967, -0.7287271178812484, 0.5619136291975526, 0.7348116690634543, -0.7082726257983272, -0.9764552644813276, -0.5112157404192141, 0.9535382670367967, 0.9515816653341724, -0.6694049152456956, -0.9151714981137071, 0.9013229037952033, -0.010017290624161124, 0.0946652580643157, -0.24119627975660385, 0.2935541781024886, -0.09866970268010022, 0.5847478081860336, 0.07619486656551944, -0.21857562361670868, 0.31501500128595805, 0.5175929109716306, -0.9011413488777671, -0.26513921888184777, 0.9000554150159477, -0.7900737904085535, -0.9259190384144951, -0.6793385621855339, 0.7019223814704416, 0.5267097510748406, 0.3673161068273205, 0.5467600382045468, -0.3684834568116646, -0.9961329667458396, 0.1733093997090469, -0.5808611750252048, -0.9281652219628911, 0.7531529244011523, 0.003435541874258874, -0.9327873623446332, 0.4271923536850335, 0.5147946611636562, 0.7320516476317258, 0.793377953597006, -0.8044233680820969, 0.20210080479781278, 0.9362134028816738, -0.24269456226776587, 0.5630423647838054, 0.4387732071702466, -0.646025027711272, -0.4546045442394533, 0.1129513533791573, -0.016491675128015304, 0.661530812797547, 0.8655702123846407, -0.05616858343940012, -0.43274318734114847, 0.0940508087678984, 0.9605294872047003, -0.6376166290387606, 0.7652595459825826, -0.25715586929457146, -0.0565680675586413, 0.21400096100848476, 0.8213787421425669, 0.8480830130250201, -0.7994877931691562, -0.30075888706441045, 0.8000462438643723, 0.935416826672175, -0.4870097834285807, 0.7810740134780507, -0.25444256479045846, 0.3715719953283674, 0.19525777723190263, 0.8017925587600954, -0.4875433614376228, 0.9910601319772632, -0.5462990884435712, -0.5510982074083777, -0.8874054608587305, -0.39722645898306985, 0.5230230806653269, 0.39058427492761694, -0.7750640020564161, -0.6125664104814996, 0.9046477154185129, 0.20009615470738917, -0.6624282745148313, -0.9886345005669479, -0.04740588636088905, -0.13396807811831413, 0.07799436655399772, 0.6199239927042237, -0.6682732490944452, 0.6032652573170925, -0.04476993153813025, 0.07177351306225566, -0.44540984260789873, -0.7086002053968758, 0.2816326387939063, -0.4904051416313573, 0.45347207782815735, 0.17394219349854345, -0.29687390896240706, 0.6480927020226306, 0.3504614628027396, 0.17489484459674065, -0.17696512674643716, -0.3673760741752734, 0.7130405693455821, -0.07549323255485962, -0.9099316922969811, -0.38363751234841637, 0.5205912939837098, -0.9885781069298876, 0.0184317753863803, 0.6929898388994973, 0.16895649349404618, -0.24766980947906325, -0.8222631452299884, 0.4983535280723026, -0.9515597491469685, 0.09091541912348533, 0.8378824134400742, -0.17789504140333112, 0.025839245173278735, 0.0644960850263463, 0.34492005833715855], [0.8404203924562004, 0.735552675441713, 0.6945749561633445, -0.002500056928555594, 0.3352183868783616, 0.9459334050703583, 0.50985360797691, 0.21449054868883177, -0.03225395826166966, -0.9176012344369622, 0.6622357250433937, -0.6703739806525164, -0.7911207232324682, 0.9292981736131147, 0.7134818996408865, -0.5019196606677199, 0.372390801241792, 0.9523325766318125, -0.9001025540092249, 0.26130169675941173, -0.44701095525782075, -0.5140094984195633, 0.9229527766170842, -0.003113137679069622, -0.13282636025140304, -0.16585001872995764, -0.5098337550329575, 0.5998919828184646, -0.7050772229778342, 0.44409383244976897, 0.2592070039898813, -0.06924689544377727, 0.3867095141039454, -0.852020278944545, 0.9172785223794504, -0.614629228739259, 0.004362274570996583, 0.9390646183309961, 0.9431736175861285, 0.42933365779354005, -0.0687800248784689, -0.9057068646308175, 0.7901649569353533, 0.3843098031832135, 0.8311273811494206, 0.4057417079468286, -0.8951056082046709, 0.5689149528824218, 0.7587465215793863, -0.41698758360435617, -0.6317660589920537, -0.7124239831984804, 0.8039024948584783, 0.29095701335792756, -0.04758968752993087, 0.5515222542531462, 0.49927254904166474, -0.3867431354122075, -0.7317679018062593, 0.8422642743296305, 0.6944344947356449, 0.5414432094737949, 0.6553752216820425, 0.09714716845273874, -0.373999437386608, 0.15826356077594395, -0.69296517922891, -0.2578458240715016, 0.6087108234929561, 0.6895979427162382, -0.5522997783165504, -0.30317615002317844, 0.7094499803106395, 0.2572663086711542, 0.9000754189482529, 0.09297579546538559, -0.4822614692731666, -0.7815078292924484, 0.9976837390919517, -0.045188554973743855, -0.8842684177391791, -0.1248172806387351, -0.9485969025374179, -0.7781866351337705, 0.07770228351458353, 0.10735725308903654, 0.22643491114636372, -0.2944797873737257, 0.3462218364474192, 0.46629657267043334, 0.32023986476175703, -0.5478386273381242, 0.35588989712195485, -0.8511649651699087, -0.7938551633398838, 0.09859694378178396, 0.3328132886229478, 0.694350991754223, 0.6872965105133557, 0.861283508741002, 0.7061817939726918, -0.5859569532832012, -0.484777691927047, 0.6337905944060098, 0.6792659218579975, 0.4719026763574652, 0.36360189946984467, -0.37275131894217695, 0.9057036654985842, -0.47760724451429315, -0.6509514432667274, -0.14547404395731722, -0.8612436554118037, 0.8514828978437585, 0.8520608068529867, -0.26513459676460216, -0.12798101512137583, -0.7143828776529855, -0.7962876065475182, 0.893996286169976, -0.6056232878478227, -0.8938181526758155, -0.8332842730549228, -0.9319162064448232, 0.7243277328028299, -0.4759062686349691, -0.10814826176182346, -0.31230250511248525, 0.09301533827670205, -0.5922527931437429, -0.42015074497455385, 0.9693407344538085, 0.25822206172399875, -0.944363568062083, 0.8411525138036782, -0.4406293618843766, -0.6079550844749169, -0.24369769476440917, -0.5103677096177015, -0.4627638369780265, 0.44005084140336215, 0.3312898146526986, -0.6749473611515711, -0.9268591211785784, -0.07081573234255245, -0.20803602125346932, -0.2750143965255665, -0.6419668116108481, -0.22454547194336483, -0.7819738318020097, -0.4661209026118911, -0.11247920891382646, -0.15903386377907647, 0.10392155745455867, -0.9051917198299739, -0.576001362409138, -0.04690228952151432, 0.9037748101024696, 0.6219837354686655, -0.8934523260483671, -0.9956138036635263, -0.47289294215811273, 0.3224861962832932, -0.9575185045732635, -0.8782112341884427, 0.6696404620060714, -0.10006372466852254, -0.5149923959738041, 0.31654953774144046, 0.1770776066418751, 0.8410683527190845, 0.9525086562787544, -0.6933847151708656, 0.6039830750716513, 0.16230498748483213, -0.1309908196580747, -0.5485763120303111, 0.1204260285272103, -0.21928827938264583, 0.33593960530838074, -0.4459052201180531, -0.06410467778746964, 0.7662707023866013, 0.806380803937947, -0.9319450522551709, -0.7452885440082868, 0.5571527748715159, -0.945567186416548, 0.2157047125823215, 0.41336137766789194, 0.15013734969471315, 0.3110486763249958, 0.883287737825398, -0.47377437778526543, 0.8016717872399355, 0.3573463414201521, -0.9220766127662943, -0.2742530924445987, -0.8534471338983571, -0.6235736010078947, 0.9335311443471561, -0.3826237704935398, 0.08864273453910654, -0.7327109515468364, 0.6834216585226089, 0.14257784219291914, 0.0995152830649424, -0.9492131637647176, -0.7982908907692694, 0.45557971827890653, -0.7416593433960412, -0.13847095742518634, -0.4949469375633917, -0.42902714460570146, -0.662216368219251, 0.25830632262960007, -0.20761447178690995, 0.1348508706574878, -0.8859844270109556, 0.22316464966651295, 0.09965490932598597, 0.006011892275360919, 0.22068687609735282, -0.027574337766771206, -0.8387099908829627, 0.4091933579945408, 0.8196878045926688, 0.6004635878445284, 0.27319300801643465, -0.5924130804596777, -0.8795029698410384, -0.545749264294122, 0.2642235083660298, -0.23844944319924966, 0.4598065980805266, -0.022483893103099284, 0.7451397434479785, 0.3487728511341097, -0.08673456408864011, -0.7302699067497729, -0.8131990589054807, 0.5673860347198554, -0.7213968689875849, 0.7413239798302089, 0.9259388728711626, 0.40775221135833295, -0.5694220945216133, -0.49611291387034573, 0.9787474808730376, -0.09150812879721659, -0.7505237596924494, 0.20982742117408315, -0.4811251030447907, 0.4349344626095659, -0.4432128583206141, 0.8542979914913591, -0.2706755093634927, 0.6596306957089799, -0.4453908465874412, 0.6310780691268818, 0.0908822281647148, 0.10497134950235365, 0.6910291807687328, 0.0858019833450181, 0.15325167123203354, -0.8167401982852265, -0.7497026432690601, -0.8040874254474881, -0.7240564384261465, -0.9990595333489838, 0.0027156562343304547, -0.9765534423004214, -0.15615336199362906, 0.11374600468889584, 0.29519594998504317, -0.2567598827640567, -0.24293859113725014, 0.7530750572499969, -0.616365531782489, 0.8828139583596699, 0.30963783380795395, -0.9630031335447398, -0.18179305758259456, 0.9601640800122757, 0.5571321357630954, -0.6446644315327252, -0.8635336132749716, -0.9101240889991813, 0.9790526495238523, -0.2958793835162974, 0.3559375002738012, -0.25276640336990375, -0.3921868070128398, 0.5307275175652677, 0.19816785241898183, 0.39372400448462486, 0.23690778203131657, -0.9896326549423009, -0.29963383955839595, -0.2815801537801996, -0.5028924602662177, -0.1268542752248918, 0.920834321795452, -0.6339466214740295, 0.5847951815336743, -0.0012548507350653715, -0.8939021001538099, -0.557106728219587, -0.5670211957748628, -0.36429660418069676, -0.48827062051160763, 0.44964475878985555, 0.23637666903828913, 0.8820620990405339, -0.582887140065909, 0.8271233099596698, -0.24946995252539805, -0.01923374454922544, -0.6234179421896133, -0.3594176134116407, 0.3697283162366709, -0.9123622327878511, -0.5838519729210034, -0.23736009063827002, 0.1642728070454449, -0.056805767520797135, -0.34196593499595895, 0.011114668360837188, 0.5903237439540865, -0.5750477365836639, -0.11855680038496286, 0.6539081681720247, -0.6455315736548022, -0.031984582326862965, 0.6940821853534169, 0.32507527248512, -0.8021746248589976, 0.11507420772757815, -0.700693619703646, 0.2843221233580506, -0.7583309424843148, -0.7509485035856327, 0.3922133674960038, -0.6430806498630499, 0.987338402391039, -0.6778362832081704, -0.33855339118341643, 0.8817819019255282, 0.6671338528036426, -0.4060020343786406, 0.5029067095915098, -0.2204955731404179, -0.3764085483028794, 0.9853158960257848, 0.40870843636631227, 0.5823109451304738, -0.5781704139107853, 0.12270560098695404, -0.29033045609345587, -0.158636199050743, -0.08349136911109323, 0.2345552112753726, -0.3773037872657963, 0.6310472557552931, 0.02601352126566825, 0.46086045745139104, -0.39186957078368967, 0.30014271627696587, -0.2861352446157006, 0.4971270125067029, 0.5832639573413003, -0.9673506488386114, 0.29314626586430714, 0.13477319038455016, -0.5604055984149967, 0.502139527832151, -0.9622750472335133, 0.6529428052642305, 0.35639670405974044, 0.06904664177087838, -0.865742239650843, 0.3257517721068317, -0.7977913896515882, 0.8586679092979519, 0.603283253144415, 0.5614906742974575, -0.4336710989297985, 0.5548108689213433, 0.9308837392930225, 0.5144894334361096, 0.011568889137703708, 0.5609259510760061, -0.3840470269161056, 0.694816362378631, 0.6715744702683828, 0.9450076623146848, -0.6875877226767602, 0.05630595127288607, 0.21083091840601353, 0.7594665481708367], [0.5956807456012796, -0.6926820187962772, -0.2610359538677236, 0.41354208557934835, 0.56448315201187, -0.7940257915326105, 0.006994387476719766, 0.9212355963716745, 0.18015032136655695, -0.5266912001663038, -0.4510591775229251, -0.37815465109072455, 0.3518378998060545, -0.2954671074965225, 0.15505580745982828, 0.4707860045409853, -0.12874139775338778, -0.24958590564298588, -0.8637127673522251, -0.8378362517630082, -0.8880988278198556, 0.9666165453806896, 0.58674293445024, -0.0404756022080619, -0.05319498740506301, -0.8867498880845468, -0.9071783324812726, -0.5927820686902581, -0.880254616750098, -0.19770148239908236, -0.5942499175371898, -0.3502166459699967, 0.7498321729288095, 0.4174242555273777, 0.48121954698877567, -0.0032467102059894337, -0.33487667179856384, 0.19898116053101145, -0.9385940263251913, 0.4312433239294995, -0.09142163518430091, -0.49246946763745303, -0.5210185627093915, 0.10690051619240748, -0.5324352373696808, -0.5067610924376433, -0.3435339945971094, 0.008149750027684144, -0.9403064739189899, 0.12092164821880158, 0.11863504119789736, -0.4930546454700704, -0.07216750477789957, 0.2732047135889146, -0.11321074207569781, -0.8893037628193843, -0.7770301691036814, -0.2986933468760826, -0.24275257100612047, -0.1233375119049327, 0.07939730067029793, 0.28763104985841137, 0.59514161433985, 0.7618872588084069, -0.5803934351892479, -0.38091890969428976, -0.2918485709247429, 0.4602478376895218, -0.260387079153487, 0.07374202279194586, 0.8339271823653931, 0.33489580210508163, -0.5307756961610721, 0.8027688197847218, 0.9287359570217641, 0.9108674806156172, -0.4875737182655322, 0.3755862792202176, 0.6923026969087465, -0.34757737957667567, 0.7426456716054, -0.38413504658982545, -0.6397775007159643, 0.5204293877811337, -0.8900430824404477, 0.1064439889076858, -0.2516619640493998, -0.23012275839631702, 0.3906676164170477, 0.5992090703468356, 0.7821222972153921, -0.14054338364285224, -0.06543803816057925, 0.9492981046452795, 0.32441116843728035, -0.4254544423908453, -0.9543273156589771, -0.9663509000230848, 0.46939321057740435, 0.8424486937927516, 0.20685657937999147, -0.21782481012669308, -0.4213146005618231, -0.0838605324281807, -0.698432072351119, -0.20081310018064658, -0.5769998931768694, -0.6814953459462023, -0.22457778418740615, 0.33027239070156744, -0.7615045921622752, -0.9965648163213097, 0.9835431660935754, -0.5061666985098872, 0.49931848058306527, -0.9624267512951488, 0.41594742310516386, -0.039119151867049506, 0.6413362358614976, -0.29656906024050556, 0.4387175657933682, -0.6998338351477982, -0.49792503528076826, -0.21220820569022103, -0.9456722882900634, -0.11743519017594162, -0.09133774862088195, -0.13330408271814576, 0.6486929009914506, -0.06240861271579279, 0.854527940470382, -0.9676799989449016, 0.3670592899793026, -0.5543347220524835, -0.6002949490657892, -0.07518261301867057, 0.9654019986838074, -0.15672350516053246, 0.2851529454667532, -0.7648817402300756, -0.38373417774730845, 0.10736544862502972, 0.07234525880706189, -0.945891695081166, 0.2693930193562757, 0.06279461502240258, 0.5818210652155988, -0.8475041444814464, -0.0378662150549971, 0.8863117352170786, 0.9609592423588473, 0.19324639269014066, 0.8418840359634692, -0.5091692602026794, 0.7003137695351815, 0.09474977920295746, -0.72099285722909, -0.9371650037076653, -0.7008130474559358, -0.49219139323499794, 0.641183110635704, 0.8464236702753276, -0.4186686807240869, -0.8824022926611046, 0.22817665113278762, 0.662638623762009, -0.6759182990144394, -0.5925242593586448, 0.9207459782328813, 0.6063719929615041, 0.10677286323565993, 0.8289433397358215, 0.15505689727992222, 0.6402988335618203, 0.6831489024560968, -0.11324542010165173, -0.9247541140815281, 0.060595238294739895, 0.7647860834056885, 0.19579941322227912, 0.9444677536590498, -0.8853744596786077, -0.1729834566369557, -0.6492757700555329, -0.8775675862116479, -0.053605002829534065, 0.9705079992779886, 0.8817740730473596, -0.5847747454621737, 0.45089129079905255, -0.599923848548747, -0.8196211975023693, -0.32211656300638847, -0.04485876073752082, 0.0980682045322101, 0.8355347445953905, -0.5995586808202844, -0.3091602283237769, 0.8398204421255224, -0.8841141307238678, 0.7337425557708199, -0.2198393283403477, -0.8004001900161317, 0.9981735500890074, 0.9256908675157443, 0.11081417102931357, 0.5806915960498893, 0.7707528621732047, -0.8416836695264527, 0.332352571013816, -0.6561350428050499, -0.3080013339692893, 0.5409589915666784, 0.3584371143176617, 0.3681363470196801, -0.27044443288209563, 0.4984288581087186, 0.28109078521136266, -0.8467255080039446, -0.5269339942551319, 0.5544988999539833, -0.28776370325055733, 0.5676965358313213, -0.27480226219930093, 0.6531059947041538, 0.11394981007723959, 0.5672748378308659, -0.9167055387981864, 0.4308803517512345, -0.43593953315563483, -0.5332930218566201, -0.29331746373481327, 0.10317136086677259, 0.009152916768368158, 0.7870638774724539, 0.4624636591165847, 0.4837670356252737, -0.1140775294271057, -0.6794386766427698, -0.7864682374577232, 0.6684206761648095, 0.3873388487788023, 0.5217417520282119, -0.032846128292211896, 0.6963461833794395, 0.03626962711823811, -0.7831146709022758, 0.23756765604070784, -0.2538157789286466, 0.494257133501234, -0.4278522010073649, 0.9883002328042352, -0.08054390634199571, 0.1673813006693865, 0.39477209944142544, -0.8844308367035174, 0.20031616911475258, -0.6288208370724009, -0.2839239269777911, -0.33003671362575226, 0.0018883182354851868, -0.2987652746930649, 0.9334710235763666, -0.7229968399783178, 0.7290439319386726, 0.8328326107860378, 0.2776685353255739, -0.3585572071930403, -0.7275139957536254, -0.21723818244340953, 0.5971490765252168, -0.7935449503836538, -0.2683639884023692, 0.4698618504072416, 0.45714944705642724, 0.5940143084718303, 0.5814304309011695, 0.8376570671776875, -0.30014475233198157, 0.5455554407176617, -0.07365023338681764, -0.4438092149432229, 0.5751261687264306, -0.5458959448134708, -0.19836756702207436, -0.5550864459444569, 0.8487106465736789, 0.24613974343570955, -0.7062740717639606, 0.6801131682707764, -0.25784766335993226, 0.6288229339182521, 0.9242648300708773, -0.2822439233851466, -0.48755143304111725, -0.2645737395216665, 0.19160975997895235, -0.32939327181614564, -0.6131028341922153, -0.11258511060743714, 0.14675235610079396, 0.7395258811230643, -0.9336044588110615, 0.07229009732597502, 0.16343762997786837, 0.3540743122311316, 0.6884441116460718, 0.011401239379117412, 0.23394399443027636, 0.16543909824492742, -0.6609800679479507, -0.7945590836756706, -0.49639170245308706, -0.8581715879325544, -0.8124837103615454, -0.2603320147935082, -0.15160994629206304, -0.10567989946478229, -0.8683927534703373, 0.3908281556009714, 0.09585097841190104, -0.37438249161716364, 0.7891751362147992, -0.9022969916495849, 0.8759150485072265, 0.00528423366259978, 0.820846566925409, 0.38424137765014676, 0.21577352877381073, -0.46825610869307877, -0.6063921124198952, 0.2511866650879444, 0.15665545674964743, -0.6186484747581928, -0.7086241964133713, -0.44822844341684065, 0.2894291987966737, -0.15272278622042346, 0.3654925594198337, 0.19237386184716754, -0.643092740412009, 0.0172853532298598, 0.27632496539318874, -0.4281529715605745, 0.984200353798488, 0.6658614794488469, -0.2139363316381655, -0.6531248140527777, 0.7589062756273919, -0.4780157440923838, -0.4944453630374479, -0.32825371970508876, -0.00782073411862183, -0.7979289828034202, -0.42383658369238897, -0.059511671557784585, 0.304522104319785, 0.07502945995763577, 0.16800680209225094, -0.3373406803718497, 0.08265139348286787, -0.9845183851380293, -0.8504133628199184, -0.9157787040049432, 0.5879783644099907, 0.5966234501643033, 0.5576816073936552, 0.11186523150343275, -0.7044495971740377, 0.4331541859392105, 0.4437911206279226, -0.9910040151685893, -0.7547662069274927, 0.2058357483747839, -0.23085334382911782, -0.8117515644165538, -0.7924945642748005, -0.595760173868942, 0.13152910816965702, 0.48707078672282944, -0.3015762418065566, -0.01927699864408461, 0.4796549622517128, -0.9766190665748369, -0.7365736542096883, 0.01426566991300704, 0.4058370705162062, -0.3823586963058012, 0.7901753012897708, -0.12174143672397753, -0.4794827462411215, -0.6096881750449181, 0.13848231691135138, 0.7759770615736263, -0.9658643139511727, 0.3453535726273065, -0.14371778596514329, -0.8509748267243766, -0.6215710898785811, 0.5374519916106886], [-0.3392957777155736, 0.9232005936168299, -0.3733982624294405, 0.3846661385668546, -0.17867593270976934, -0.0034751661834082626, -0.7826300348104915, 0.10080958533720463, 0.2734654180044458, 0.2381112741846252, 0.6876090871952276, -0.1539278959564665, -0.6643931818919651, 0.6762215579820265, 0.6207925046616396, 0.62144013635049, 0.41520927875921365, -0.7077283162123817, 0.11096694187360834, -0.8099978866498718, 0.7150919434843355, 0.8766000333314545, 0.36141027073053333, -0.9974871452357206, 0.977623367998548, 0.11478033030742818, -0.8911598880299894, 0.4904715076760413, -0.013224451812087867, -0.51363153796448, 0.2838649671227731, -0.3498452281182802, -0.25233942499035833, 0.9584296773141003, 0.06976290174484445, -0.21438484198565755, 0.7605646359910159, -0.6024680781773248, 0.6854114611081781, 0.8455372146118896, 0.4599673634796646, 0.21847099163756356, 0.4660757348600695, 0.5763411833225307, -0.9965438822542414, -0.7935589803990553, 0.2571575775294399, -0.17153345451148994, -0.9384664129102451, 0.5597287361759478, -0.823846722182269, -0.10896578721255223, 0.6571151560012651, -0.24609198785526276, -0.32303566774001147, -0.8826147233917385, -0.4090917839873327, 0.9708943730954827, 0.7712075881335814, -0.593361818479629, -0.934449512365835, -0.2756708494727229, -0.9582715454137982, -0.21388266241002185, 0.30500202299336343, 0.9764741398216943, 0.47260408835820567, -0.2890197047609764, 0.7503524032981024, 0.2575984599107184, 0.8903687185868348, 0.7021246522361668, 0.4629557230979171, -0.4373924103145159, -0.5213532298783135, 0.1182099105936445, -0.7339823135520207, 0.9054847241841157, -0.9731866412465295, 0.4425175626705742, -0.9794068286109663, -0.6839867791077161, -0.8635493984432161, 0.1500089412888448, -0.523928093394024, -0.7509597538800712, 0.488238875665864, -0.8635432369566178, 0.4717551536920179, -0.11415148995097235, 0.5918006756187761, -0.39313079988264543, 0.6790520272106462, 0.3870725626228566, 0.5522913873736013, -0.2939120067402763, 0.44635673637557605, 0.6719291088668025, 0.06363336519755358, -0.8445358945156136, -0.4267903015899235, -0.9191808710082556, -0.5894362825127486, -0.17125764344783945, -0.650497862925485, 0.2867928605313417, -0.46845901958820635, -0.04070283756800985, -0.8749942252581882, 0.45097418316230065, -0.020252701198821388, 0.7114300331246528, -0.38967673361118904, 0.48392593646459003, -0.18773998254573954, 0.2749715740846961, -0.8481465104563295, -0.22048259160419836, -0.4300438442859822, -0.7076768227629711, 0.7806205962234127, 0.7780600333602727, -0.7820377477859475, -0.04503294505704547, 0.4567445987579546, 0.8232439833323888, -0.3511536115373548, 0.4614915104532378, -0.6100081871277043, 0.24608347613885084, 0.03144750240506333, -0.6757624958611146, -0.6574242519930442, -0.6816910071275657, 0.5708437182163935, 0.9182282826109269, -0.28956751423146465, 0.6398647979347092, 0.1338598977570986, 0.7400992462959626, -0.5067412880973063, -0.5945913273536434, 0.3953700097503816, -0.8962687583412989, -0.7005026718385619, 0.8920050482169102, 0.8188078779505852, -0.5678163410574353, -0.995908400562727, 0.9567097224098049, -0.857550832911502, -0.6244816097857466, -0.3766348272411384, -0.9672124074291908, -0.13678329721918514, -0.30531237094960817, 0.056049376098483705, -0.2532271869788567, 0.5736909879317424, -0.4986600498038414, -0.6075945358486659, 0.3597959976654599, -0.4080256274972973, -0.33179583209131924, 0.8433255270689284, 0.34726389493569587, 0.6307011236760773, -0.13309529436007939, 0.9190163169879919, 0.8442322281779864, -0.9494703831591882, -0.7362184972398351, -0.07464418371551518, -0.33445801562030564, -0.49859517018205435, -0.5092766092832328, 0.29213596774017736, -0.3790301812787302, -0.9855013425291088, -0.22854400138811792, -0.8779448126601419, 0.6293827210954164, -0.5178275010608997, 0.19891607451965942, 0.9586483787264444, -0.520623764271567, -0.30934900915919195, -0.5255225935013541, 0.993055721521036, 0.5738008466216533, 0.3832071477525536, 0.6035704111386095, -0.2227203660703101, 0.7952348417155335, 0.6990727368065983, 0.8229702108925261, 0.07917916267966874, -0.2037754725494696, 0.7490215166627252, 0.6039941554726989, 0.5789011349263387, 0.3679236804050061, 0.03154095708089044, 0.8053629823557229, -0.5994494149350813, -0.34877797035618907, 0.5271450262391817, 0.08413014658770779, -0.8711265368834666, -0.38828285144748786, 0.02312675881510673, 0.8484530657954339, 0.2462794485964297, 0.6344439695733426, 0.448589635606524, -0.006050933178303186, -0.6350342674634828, -0.4200936915759155, -0.9448572268275881, 0.2873644260453292, -0.4185757804419321, 0.4388524093421573, -0.19838011277263612, 0.1518110210599095, 0.10111724567888403, 0.32914374880793584, 0.8722317908949722, 0.5591042006046885, 0.2637170336251442, -0.2248616852985077, 0.7369535703483765, -0.3293701808919307, 0.6189362373697394, -0.5342562775638373, 0.35479553047773393, -0.7781420582033471, -0.9957393025309274, -0.2575275258401897, -0.7037677960867603, -0.9072206336815654, 0.548685433855731, -0.13383748483948987, 0.34798427562332535, 0.7912116151740294, -0.6276030485665958, 0.42502410722106365, -0.7945170411210909, -0.5710376648776712, 0.4414673447224904, 0.7403751352597414, 0.6447018983546915, -0.15412677843958944, -0.15719311544341652, 0.7903794731964879, -0.4847127445485946, 0.2622193106260182, 0.1379372518863784, -0.3039019178208895, 0.035317058725925055, 0.015886878884891598, 0.7585027836813776, 0.20147663599042076, 0.8931002208230643, 0.5528153867754266, 0.4633964212595014, 0.9413089947735804, 0.8140550995313234, -0.5080101709093456, -0.9169171184369329, -0.437569148725266, -0.3062627937393576, -0.5901844612488583, -0.3400599894075462, 0.6543309038402312, -0.36240957951434827, 0.669868040126079, 0.8546647685962441, -0.3664814625291044, -0.22238308878286106, -0.4993597981998008, -0.0518311001392604, -0.3330446326055694, -0.10022246022413972, 0.27984365528676935, -0.48584988514326266, 0.8262336605307892, 0.36080621660861834, -0.5043248437087773, 0.7342431786786074, 0.5977266852090837, 0.34529347065879357, 0.7420169161215566, -0.025652598189565445, -0.04856876492178164, -0.3690769104552982, -0.7751611351264289, 0.127249345800031, -0.014752555511662546, 0.768347087167101, 0.899015721842974, 0.9782785418849445, 0.5358184542066649, 0.15694147554210947, 0.984005561976278, 0.1605089176893657, 0.5971167355086973, -0.39841282237652775, 0.3709175841150574, -0.3811952348169192, 0.896429171129077, 0.3994489379138939, 0.8222133569521468, 0.2887577763353417, -0.631514582051836, -0.8881147776751748, 0.01802888890492116, 0.8244925166471777, 0.584687370089978, 0.8634482766869438, -0.10308300846921914, 0.6839369690725328, -0.4530611052130793, 0.3299307575005681, 0.6176756117776137, -0.8510300192363394, 0.26653182054986835, 0.04374793400342769, 0.9071930352459483, 0.13152609472682308, 0.5891119742205453, -0.25869552150086683, -0.003802976945843195, -0.6828218334545231, 0.16550173466513973, -0.7111103958425584, -0.8538653283683078, -0.4571273615990601, 0.9291038280567838, -0.19527410467968287, -0.4503282839512035, -0.026094800251339256, 0.023431256223054975, 0.4475592270164812, -0.3634780616710278, -0.9175158928322253, 0.9624113100637666, -0.2131790202556756, 0.4529763856385731, 0.4102498069624929, -0.3890104389522544, -0.3901374558967403, -0.7007295939796543, -0.6596108210854021, 0.8441643932132223, 0.8979100820766952, -0.35669074715517035, -0.630496021033204, -0.7722782362313854, 0.42913653738611157, -0.21977776623215606, -0.02341275358165551, -0.37970337885592387, -0.7137866917405205, 0.23380058494706746, 0.19920427706694466, 0.9105275111157924, 0.5819116145901393, 0.624740172800974, -0.12089489367558004, -0.3332517203563261, -0.9778600948949097, -0.495971741411686, 0.6835283072393343, -0.130984030226327, -0.7002622531961236, 0.09124214994616686, -0.37594186671445096, 0.2739727421503886, -0.24435333082931554, -0.0935668301640249, 0.06396236685465095, -0.26647079161905896, 0.6559311081127761, -0.04214209783509859, -0.6276418792431346, 0.43242394403922435, 0.11013844671819406, -0.8535550087374453, 0.32617423695400416, 0.9987266321254469, -0.3941761469283904, 0.31939036255760644, -0.49005257924728496, -0.28198846344526185, -0.27222875244329625, 0.6564451070370361, 0.2432571815819351, -0.24223938025429104, -0.7509277374835268, 0.8320482068011132], [-0.46976878889027507, 0.9826443790714208, -0.21837654127430528, -0.010464646423596013, -0.10141158067947953, -0.10122939204164694, 0.13203614979634692, -0.6856567159617568, 0.5182067288404488, 0.8663869348882824, 0.7461763788904074, 0.9571270558674656, -0.8643844597111978, -0.8394879500613233, 0.9529228723021388, 0.5392712400976098, 0.27625537028925806, -0.6671869350039341, 0.21242325017238572, -0.33759151027717493, -0.4990111886878119, -0.2367551941389494, -0.9790201753950611, 0.7335161744085335, 0.11652694563541166, -0.4892473270280422, 0.4858680354949989, -0.449551607963004, 0.4821169456229655, 0.08352810402474065, -0.4921701644696552, -0.7275366145322708, 0.707897310834962, -0.6015476454520927, -0.14647885125757387, -0.21324992070182036, 0.142879023415033, -0.6101457774839496, 0.5149798199945888, 0.5111145354281326, -0.964746621492151, 0.7612456309133131, -0.006821658167878608, -0.6379082268153351, -0.589602534673116, -0.23099129540265562, -0.7059032704215851, 0.8644348215182811, 0.761594373089387, -0.6965062409892628, -0.294214437323826, 0.7714513351859218, 0.9610437932584259, 0.1890287571071334, -0.5841319659277855, 0.782411137293302, -0.928684319084377, -0.1609820441791021, -0.6622033446705113, -0.6550298408199935, 0.7926600419651697, -0.4261303764915232, -0.23059780359367177, -0.38780988948912376, -0.3001545342847507, -0.9170840600800758, -0.524641311275126, 0.6705159351111636, 0.32673682852677977, 0.8714386865841737, -0.2873926450789075, 0.14925157076311324, 0.9285976016503148, 0.07227002628747603, 0.7345038184654065, -0.705680504240713, -0.17243621256808717, 0.40414132746079146, -0.504459372180629, 0.6276399723014872, 0.6037162339809052, 0.21042714448106126, 0.815803310685532, -0.4528909395549905, 0.938439097455906, -0.4994790049493414, -0.4175179909390192, 0.36930424398469985, 0.5219491658836617, -0.07181543698537429, 0.8198398277796786, -0.5687248221674654, 0.19569792534913777, -0.781310367187507, -0.31191701999964816, 0.2605920326313016, -0.5836882476165006, 0.020924893155953583, -0.6528507338344318, 0.5319142486544086, -0.0842931453184308, -0.08701609029464641, -0.6757449985933242, -0.48825192945185125, -0.513483437501258, -0.3385454926510103, -0.4154817542989018, 0.2934836127546627, 0.5371652509506779, 0.918662994255778, -0.5348450613991891, -0.9766527962397116, 0.47463652892096597, 0.765397083205233, -0.8632040506798007, -0.28467207428429986, -0.06366999639894244, -0.205037848128645, 0.2804455267209003, 0.9201475166498496, -0.3693960836029051, -0.15815783973701936, -0.0029703372894442914, 0.3927023242316927, -0.7263742132695759, -0.7169725310041832, 0.018161114077486662, 0.5110100529753456, -0.2982915523256975, 0.8973860574808474, 0.11498426835729703, -0.3462645934891504, -0.21818666612783555, -0.4036528166194395, 0.6429923281697922, -0.44696122804255967, 0.4235881148336431, -0.4028097459709572, -0.7107329351070273, 0.4655175623016736, -0.29812334920796424, -0.7320328421606925, -0.6870542167517217, -0.972018359785374, 0.8047522535323137, -0.753275967393118, -0.005978361450714953, 0.20627820497327964, 0.024449043783988822, -0.02343285670383377, 0.816982216874113, 0.4322222014460284, 0.3605487090682986, -0.019917149095973974, -0.17988830795527, 0.8796081706610259, 0.26676508402626387, -0.5905011099727873, 0.42627910943761793, -0.6384640891926159, 0.7453706554744668, -0.8179608864230108, -0.21487736675895697, -0.756878051123463, 0.2321572459687593, 0.2633322292053957, -0.4638853265793641, -0.29635744779723794, 0.2760285653634058, 0.1293231681988809, 0.4936885284565171, -0.6496142154363878, 0.905464306786584, 0.4611479245683723, -0.1819858732962425, -0.9108273924954173, -0.004342369352681841, 0.11265982895051607, 0.7024352991877365, 0.1934621258310647, 0.0018734549529504374, -0.9833204544133876, 0.2978443639966002, 0.06546146647957851, 0.6804844561168986, -0.643693606049454, 0.6578843481869276, 0.5044786949139999, 0.04856258047469075, -0.755991577351689, 0.03279451687438173, -0.4106955043706213, 0.4273621299371837, 0.501673239270066, -0.0480818264105336, -0.3464620873990778, 0.3421801004986742, -0.2813723713524301, -0.8746096708977089, -0.011428261302998122, -0.3538293753997783, 0.42766039735820827, 0.9153525563620004, 0.16795895788381654, -0.36380812111049643, 0.775397396513126, -0.3540924076583283, 0.9518517204515187, 0.06353455772526417, -0.3153547881009162, 0.432968397124597, 0.580933311951261, -0.24567426938316972, -0.4321003412389728, -0.30806508269029353, -0.15585812517666797, 0.5850913719893205, 0.9156027435325764, 0.4380338689318377, -0.41892853569053234, 0.6853077774192491, 0.9470037063321395, -0.6004090442877212, 0.6154923859062233, 0.5541304776457452, 0.42837982100919225, 0.04337053852727646, 0.00813716925653285, -0.6264436196647636, 0.6113026919876803, -0.1127846197003115, 0.523100512762942, 0.4497992039112839, 0.4442178373816421, 0.7642549829845058, -0.04521466552841469, 0.3743547188616856, -0.8943238547097745, 0.18989225405635257, -0.2182709368132223, 0.1723889382366719, 0.7387846185446374, 0.14847279163734028, -0.09082352913489466, 0.6676464017302961, 0.2880592063374263, 0.3891427536071941, -0.828160067794234, 0.3043950609052306, 0.8099095645650529, -0.09642676750560764, 0.734960168702941, 0.9942767535450061, -0.9894063428992188, -0.2505709632494513, 0.617122114475497, 0.37428018238044736, -0.6021889027852116, -0.4414662240343663, -0.26418959459873737, 0.2577820033775531, 0.2710024037828238, 0.021644496520656142, -0.8362156507186211, 0.06325397152604406, -0.2918172089572295, -0.2177462701909365, -0.6644376025740482, 0.45741576121115846, -0.9890731118919418, -0.42828988045573446, 0.26269794646946343, -0.565926822254323, -0.7521320987418454, -0.9251862398524726, -0.40097693108846033, -0.30584077248404373, 0.9281753340744083, 0.6010661654997334, 0.36737908756983173, -0.9573235333805807, 0.6968893948732531, 0.6728510597829704, -0.5484044479030556, 0.4629506161932062, -0.0747633002018051, -0.6488671240148904, -0.9150442897971722, 0.16371649934751464, 0.42913674546306857, 0.3000275530994214, 0.08319935466462125, -0.2577109857051727, -0.421601212983141, -0.06133204864089992, -0.9689194577390796, -0.5096107369639908, 0.6491035690705493, -0.15715913930404524, -0.2786938967922461, 0.9202831044834225, 0.197688287412362, -0.26143465812414424, 0.033961113207599425, 0.948112061756786, -0.9731161404654267, -0.9992542759122558, 0.1426892444272183, 0.5172345596477117, 0.39493015003116594, 0.8987906195688227, 0.510339025758374, 0.14066830755669946, -0.33222742883181344, 0.6318357548737643, 0.01887405974614076, -0.22780771759216645, 0.1369250557535342, 0.41262783492651645, -0.13518980344789155, -0.9940898272918963, -0.16713434068436617, 0.7181179071756731, 0.403449982324416, 0.7893510382724804, 0.5411468241016255, -0.7764594364394954, -0.9528144166382302, -0.7677378266517312, -0.9088495440270115, 0.35557029945735374, 0.4662354090093319, -0.04666917244691082, -0.8999742479099411, 0.7123661379504596, -0.7360252539204575, 0.5159272200316605, 0.14066345305181893, -0.6720704557091559, 0.9758627153808979, 0.881050967278524, -0.1653510383217498, -0.31994056033569285, 0.21562258528910827, -0.8409943697820199, -0.1769634813025336, -0.23556323491847753, 0.19025400967206196, -0.9035351692900555, -0.7971044399714347, -0.18890415724910992, 0.1412303621602058, 0.47298358367602145, 0.5376228360258084, 0.5004936466557015, 0.8460693900795104, -0.4597172170425179, 0.7932996593009249, 0.3614362905198818, -0.7593408095307623, 0.929707873846163, 0.5972830087385383, 0.41835408592481205, 0.05479409469915342, 0.593064809018883, 0.6547963211774481, 0.18478633738563754, 0.6192053864844294, 0.4904022886297792, -0.2352298914482669, 0.9402067134536884, -0.014122010590316814, 0.8853305684282957, -0.9852009813870433, 0.9287912170160038, 0.13021073418891094, 0.16481156731426272, -0.9707918660764887, -0.15026482123290652, 0.723847232942683, 0.28552635822739947, 0.3317789469707937, 0.12947080567272162, 0.7782148626365071, -0.1715439275582955, -0.6870871339417874, 0.019388050817852776, -0.6909367312402337, 0.33238643072947105, -0.9237876937294491, -0.3594985613323691, 0.2752397953498624, 0.6663409673769849, 0.31264916981184876, -0.8110477230133395, -0.9383462074263063, -9.805233088044929e-05, -0.8009237686856374, -0.2034539990549875, -0.8448833276143748], [-0.37852824041718347, 0.42109143147810957, -0.8307916983161518, 0.3542994337923018, -0.8924513533856924, 0.7862937639625003, 0.9699421678186526, -0.2912919994028278, -0.4424198010037117, 0.7239848990679194, -0.4458351848503237, -0.7009521441668256, -0.38715412241817515, -0.011181431323272761, -0.5516863847544453, -0.6557435397846569, 0.7956882663477363, 0.3525491275801831, -0.7089137211337391, 0.005788301844844357, -0.1238920311145626, 0.5060326122489924, 0.5768884815444397, 0.7879110357430397, -0.9003704623279623, -0.4462591357581256, -0.7764891985644153, -0.734300429428715, 0.2481390104210388, 0.8877366102397795, -0.29652736930552237, 0.7685824064761411, 0.4645856947372191, -0.7448385085862907, 0.5464510809386118, -0.5152887771685173, 0.9451005239646846, -0.982659818269225, -0.37952279296192915, -0.7850300214922155, 0.05120893271410121, 0.9614664022842623, -0.6218148577088867, 0.23769721638463692, -0.9365664578705615, 0.19443426587430612, -0.38753524795369954, -0.8138491383928581, -0.776105033191284, -0.39421723874948955, -0.7710576902933837, -0.21807673395413962, -0.002076805490612399, -0.8140771156012447, 0.6749267197886011, -0.07013317661036278, -0.20040541894100894, -0.03133660431041774, -0.30842906051759233, 0.42484175657912515, 0.7590612038560347, 0.5738806638999308, 0.16041676982731112, -0.3625642149550248, -0.07414946536071287, 0.7884462854336971, 0.7917669163750234, -0.7943710672661615, 0.08151139447136146, 0.35209560067014944, 0.6239342449784304, -0.408390614594734, 0.33986566071148316, -0.087793671886925, 0.5808053824011643, 0.5039419149992526, -0.8449586131161493, 0.2852403979409035, -0.16393230811073645, 0.3063451655245728, 0.30368689558174045, 0.1039410657019737, 0.7598098406299643, -0.5974146469896402, -0.8355983599648924, -0.9605244069806098, -0.3015019922238644, 0.6112328522841142, -0.2763980131679993, 0.7151643408963546, 0.330669413869789, -0.8307492838541786, 0.2064045922533122, 0.46190858752448505, 0.4099321089106607, -0.7926862517560074, -0.8376006683555164, -0.21224388717039533, 0.6733255995773078, -0.3051822804233353, 0.9598236274349412, 0.8449295802369545, -0.4166657213316691, 0.6562339186473749, 0.6893031470298474, -0.9391177427461632, 0.1781825613547865, -0.546604701943779, -0.5318750715066367, 0.599169379891829, -0.8533108635890712, 0.34872457856222594, -0.3161549027813788, 0.46878777096428004, -0.1613614483293464, -0.9242236256421068, 0.5703333197260112, 0.3602160401219847, -0.008512836170957438, 0.08793966693516708, -0.183722844151754, 0.39005209167307564, -0.5402830695322538, 0.7313230988741211, 0.04852899267734445, 0.003759960295891984, 0.16076232223392384, -0.5352372972155848, 0.09711657686192532, -0.5477838497152763, -0.7323011099947898, -0.5669360311646865, 0.3218726330271453, -0.674812792244897, -0.6774032428941015, 0.694859871680757, 0.43418562676296046, -0.9014461982257262, 0.9993715960543299, 0.7928166439491835, 0.7818665222751935, 0.5995377749656574, 0.2859954034127665, -0.33401673467107207, -0.7842647097257653, -0.6868254796398303, -0.22145881629047603, 0.43924879614021317, 0.41962491703801885, -0.06583039101735078, -0.9681046352981586, -0.021861918986296747, 0.30575858774080356, -0.02669748173650155, -0.3341398357137175, -0.0791532926300289, 0.11919980919615902, -0.853311205371001, 0.5910159570070332, -0.7675299168998924, -0.7777449740083993, 0.004016621323702285, -0.4850970141780411, 0.28695208397147853, -0.823987369068254, -0.9295605175743347, 0.5201456361124701, -0.6419510908538111, 0.8662180474111119, 0.6404702877699371, 0.005518686382100846, 0.6644264521735406, 0.1722208508515588, -0.43761057755067734, 0.4662245656809183, 0.47408065658439136, -0.7742150146680284, 0.9821994008880437, -0.2474036390728358, 0.344629685218119, 0.16656266776757422, 0.31158726584228336, -0.2727145927566701, 0.7730980617011654, -0.22733167349983008, 0.4744780087523175, -0.5455800680589216, 0.9471918350051474, -0.8744454244540389, 0.03840629094630188, -0.8258569943479834, -0.8572731620126959, 0.49836227704923375, -0.10325652851654987, 0.3627165456894448, 0.8034328893815823, -0.61179066302617, -0.35648609599764636, -0.699722203096266, -0.4303993146979912, -0.9157372176741685, 0.7152018060832317, 0.1572260303668247, -0.06786330575206945, 0.6694860281583292, 0.6558156444511456, 0.7008980266120997, 0.44366269709980877, -0.9313610698681833, -0.14253136382016973, -0.16274159871031113, -0.7570843217120233, -0.37364603758867787, 0.6753301757978469, 0.07438488392985931, -0.846056034440291, -0.6659326557492193, -0.2576044867267595, -0.36932627922377725, 0.2874663418279866, 0.7979628967440779, -0.10566228529355826, 0.8614049281410996, -0.088388933907803, -0.585966236023439, 0.49958902304186315, -0.7619006602265856, 0.089491093551896, 0.36745886178171694, -0.2117792952335975, -0.14127006231808203, 0.20612082855561464, 0.8755391268206407, -0.9375201332695682, -0.4844232830531614, 0.26557536046923724, -0.7965922289437695, -0.4711366006915363, 0.5303853814409338, -0.9975453513325245, -0.4925311412226543, 0.39019188012954076, 0.9143629252350756, -0.018066563910388522, 0.9271478516204765, -0.008862969291220324, 0.39415353296173894, 0.2843687858027122, 0.25227309831385836, -0.35466363957213587, 0.5083314881503154, -0.29604712638797426, -0.10208169895389618, 0.6768807057495176, 0.64339665362578, -0.05733794800347458, 0.30331006286077433, -0.3041400496885056, 0.02326764515328872, -0.3339505791635682, 0.0025372674622134994, -0.039046992789624646, 0.9312959692635743, 0.0847946327463922, -0.7361629130916565, 0.16218484038683378, 0.4880914727399559, -0.5921674697860102, -0.7850013980571999, 0.6757219863482076, 0.13194958979836047, 0.29773145808134727, -0.8001958311143516, 0.5390510058802698, -0.4272250632387691, -0.39076932340109316, 0.0958469895275027, -0.03421959522720175, -0.32189933377818747, -0.4754783341419331, 0.911043570299005, 0.2909953250671531, 0.18546141949681205, 0.11313988566599087, -0.056655690798203207, 0.8000150567352258, 0.5081850524436826, 0.21762456900539195, 0.38912437985557724, 0.9726762851401909, -0.23665072636401652, 0.9767487943976076, -0.9069698410561893, -0.3303878091986685, 0.6417484495396408, -0.4548995638300428, 0.9105901066367819, 0.31437799557453916, -0.8333109709652176, -0.5508143777267658, 0.6886817243699936, 0.28279664994907705, -0.1410985787842851, -0.7139481212197585, -0.4986136560087395, 0.47818485119608956, 0.3733214156728941, 0.4358929661027944, 0.005825576571761193, 0.16612427756397818, -0.2898138112500921, -0.22119732957959637, 0.18239757908375887, -0.45391653586327974, -0.970920944087637, 0.2629305876712167, -0.3961963319430757, -0.014989861541932381, 0.8955065198867616, 0.046174510711915806, 0.7861758277160658, -0.6847442938643038, 0.6541904514758559, 0.18431167835399753, 0.44896408510025587, -0.6501502563164661, 0.9148103696855292, -0.6531143871917962, 0.4552568193853457, 0.16261513521726756, 0.793314287572531, -0.7785149109579559, -0.33924663746238926, -0.2366678393958659, 0.24044473167329672, 0.37600871609315, -0.25277636256893454, -0.09033961856280803, 0.13259705050997272, -0.18631655104246359, 0.13424638901638186, -0.4545623167104149, -0.8624925526127973, -0.8341254353996816, -0.05346279510964247, -0.11770090985979231, -0.20787108503247742, 0.050528863081062525, 0.08239664122219992, 0.27094993038462545, 0.7477292941445988, -0.8644750407462354, 0.9755499676732677, 0.125782560842147, -0.7726137024742914, 0.46772371707811056, 0.2773298841312737, -0.5897649984217184, 0.2767028531120108, -0.34618451780896176, 0.5502845047231959, 0.79242799217634, 0.645353607452638, -0.2889141191404925, -0.7414450135780837, 0.4479709178503737, 0.28591564285361515, 0.6309878108448455, 0.5010404133506403, 0.28063053461053067, -0.970887143431556, -0.5256899887040505, 0.8768067953721796, 0.05346381734975236, -0.4166264848363983, 0.04399205676447715, 0.003933708630470045, 0.26580402884253185, 0.32428245334548866, -0.45627772126953614, -0.8360306560734256, 0.10014384769543372, 0.8403582183778473, 0.6076780988572654, 0.33875638155912613, -0.20295228156719625, 0.9779596550148797, 0.8077380395620788, 0.4795904657942185, -0.1377456195821818, -0.12049622869867682, 0.19178347912403493, -0.720121809133837, 0.11413289368095159, -0.5435097712748509, 0.0722250144771941, -0.4229755928962595, -0.24494131048233014, -0.3144057356828549, -0.4304620888066648]], "biases": [0.43285556650129886, 0.19033121910110962, 0.12835319797878364, 0.8512488853339891, 0.7287908297308873, 0.37896952855478727, 0.7947274808001302, 0.08250913685303507, 0.59442963957195, 0.05261017523113587]}], "outputLayer": {"weights": [-0.9119509284089249, -0.024549773400597275, 0.7145401566725575, 0.9494686357850284, 0.12542157914010943, 0.3949049370279454, -0.7245343437894438, 0.9246113464415071, 0.17034104922644255, -0.19882915417453884], "biases": [0.07334181371544723, 0.25268767250032875, 0.6959499133921538, 0.5652353636496701, 0.5669430699347489, 0.20262546524297598, 0.0007792937081690932, 0.7738995144218829, 0.06229915710453471, 0.9961879685150772]}}